<?xml version="1.0"?>
<opencv_storage>
<cascade>
  <stageType>BOOST</stageType>
  <featureType>HAAR</featureType>
  <height>24</height>
  <width>24</width>
  <stageParams>
    <boostType>GAB</boostType>
    <minHitRate>9.9500000476837158e-01</minHitRate>
    <maxFalseAlarm>5.0000000000000000e-01</maxFalseAlarm>
    <weightTrimRate>9.4999998807907104e-01</weightTrimRate>
    <maxDepth>1</maxDepth>
    <maxWeakCount>100</maxWeakCount></stageParams>
  <featureParams>
    <maxCatCount>0</maxCatCount>
    <featSize>1</featSize>
    <mode>BASIC</mode></featureParams>
  <stageNum>6</stageNum>
  <stages>
    <!-- stage 0 -->
    <_>
      <maxWeakCount>2</maxWeakCount>
      <stageThreshold>-5.5626064538955688e-01</stageThreshold>
      <weakClassifiers>
        <_>
          <internalNodes>
            0 -1 1 -2.3582631349563599e-01</internalNodes>
          <leafValues>
            4.8936170339584351e-01 -9.9595957994461060e-01</leafValues></_>
        <_>
          <internalNodes>
            0 -1 2 -1.4330992102622986e-01</internalNodes>
          <leafValues>
            4.3969893455505371e-01 -9.8379600048065186e-01</leafValues></_></weakClassifiers></_>
    <!-- stage 1 -->
    <_>
      <maxWeakCount>2</maxWeakCount>
      <stageThreshold>-9.3284475803375244e-01</stageThreshold>
      <weakClassifiers>
        <_>
          <internalNodes>
            0 -1 8 4.5787341892719269e-02</internalNodes>
          <leafValues>
            -9.7768759727478027e-01 1.9607843831181526e-02</leafValues></_>
        <_>
          <internalNodes>
            0 -1 15 5.4290451109409332e-02</internalNodes>
          <leafValues>
            -9.5245260000228882e-01 2.1156758069992065e-01</leafValues></_></weakClassifiers></_>
    <!-- stage 2 -->
    <_>
      <maxWeakCount>2</maxWeakCount>
      <stageThreshold>-1.1938141584396362e+00</stageThreshold>
      <weakClassifiers>
        <_>
          <internalNodes>
            0 -1 5 -3.2991364598274231e-02</internalNodes>
          <leafValues>
            -2.3333333432674408e-01 -9.7134083509445190e-01</leafValues></_>
        <_>
          <internalNodes>
            0 -1 6 -1.8764269351959229e-01</internalNodes>
          <leafValues>
            -1.4911754429340363e-01 -9.6048080921173096e-01</leafValues></_></weakClassifiers></_>
    <!-- stage 3 -->
    <_>
      <maxWeakCount>4</maxWeakCount>
      <stageThreshold>-1.8152773380279541e+00</stageThreshold>
      <weakClassifiers>
        <_>
          <internalNodes>
            0 -1 3 8.7514631450176239e-02</internalNodes>
          <leafValues>
            -9.4174754619598389e-01 1.</leafValues></_>
        <_>
          <internalNodes>
            0 -1 12 5.8270987123250961e-02</internalNodes>
          <leafValues>
            -8.5375928878784180e-01 2.0174100995063782e-01</leafValues></_>
        <_>
          <internalNodes>
            0 -1 7 -1.9141357392072678e-02</internalNodes>
          <leafValues>
            8.4058767557144165e-01 -5.3944993019104004e-01</leafValues></_>
        <_>
          <internalNodes>
            0 -1 11 -1.8253736197948456e-02</internalNodes>
          <leafValues>
            5.1967954635620117e-01 -8.0272078514099121e-01</leafValues></_></weakClassifiers></_>
    <!-- stage 4 -->
    <_>
      <maxWeakCount>3</maxWeakCount>
      <stageThreshold>-1.5216377973556519e+00</stageThreshold>
      <weakClassifiers>
        <_>
          <internalNodes>
            0 -1 14 -1.7669674009084702e-02</internalNodes>
          <leafValues>
            1. -9.4174754619598389e-01</leafValues></_>
        <_>
          <internalNodes>
            0 -1 13 6.3691675662994385e-02</internalNodes>
          <leafValues>
            -8.5565596818923950e-01 2.8187656402587891e-01</leafValues></_>
        <_>
          <internalNodes>
            0 -1 10 -8.8712051510810852e-02</internalNodes>
          <leafValues>
            4.5159205794334412e-01 -8.6176675558090210e-01</leafValues></_></weakClassifiers></_>
    <!-- stage 5 -->
    <_>
      <maxWeakCount>4</maxWeakCount>
      <stageThreshold>-2.0724766254425049e+00</stageThreshold>
      <weakClassifiers>
        <_>
          <internalNodes>
            0 -1 4 7.9918891191482544e-02</internalNodes>
          <leafValues>
            -9.3980580568313599e-01 7.1428573131561279e-01</leafValues></_>
        <_>
          <internalNodes>
            0 -1 9 5.9620067477226257e-02</internalNodes>
          <leafValues>
            -7.8900790214538574e-01 1.5981064736843109e-01</leafValues></_>
        <_>
          <internalNodes>
            0 -1 0 -1.8385358154773712e-01</internalNodes>
          <leafValues>
            4.6117839217185974e-01 -7.0087766647338867e-01</leafValues></_>
        <_>
          <internalNodes>
            0 -1 16 -7.9893783549778163e-05</internalNodes>
          <leafValues>
            3.5721477866172791e-01 -1.</leafValues></_></weakClassifiers></_></stages>
  <features>
    <_>
      <rects>
        <_>
          0 3 10 19 -1.</_>
        <_>
          5 3 5 19 2.</_></rects>
      <tilted>0</tilted></_>
    <_>
      <rects>
        <_>
          0 3 14 20 -1.</_>
        <_>
          7 3 7 20 2.</_></rects>
      <tilted>0</tilted></_>
    <_>
      <rects>
        <_>
          0 12 14 10 -1.</_>
        <_>
          7 12 7 10 2.</_></rects>
      <tilted>0</tilted></_>
    <_>
      <rects>
        <_>
          3 11 18 8 -1.</_>
        <_>
          9 11 6 8 3.</_></rects>
      <tilted>0</tilted></_>
    <_>
      <rects>
        <_>
          3 16 12 6 -1.</_>
        <_>
          3 18 12 2 3.</_></rects>
      <tilted>0</tilted></_>
    <_>
      <rects>
        <_>
          5 0 11 4 -1.</_>
        <_>
          5 2 11 2 2.</_></rects>
      <tilted>0</tilted></_>
    <_>
      <rects>
        <_>
          5 0 14 22 -1.</_>
        <_>
          5 11 14 11 2.</_></rects>
      <tilted>0</tilted></_>
    <_>
      <rects>
        <_>
          5 2 12 3 -1.</_>
        <_>
          5 3 12 1 3.</_></rects>
      <tilted>0</tilted></_>
    <_>
      <rects>
        <_>
          7 20 9 4 -1.</_>
        <_>
          7 22 9 2 2.</_></rects>
      <tilted>0</tilted></_>
    <_>
      <rects>
        <_>
          9 10 7 12 -1.</_>
        <_>
          9 14 7 4 3.</_></rects>
      <tilted>0</tilted></_>
    <_>
      <rects>
        <_>
          9 12 15 9 -1.</_>
        <_>
          14 12 5 9 3.</_></rects>
      <tilted>0</tilted></_>
    <_>
      <rects>
        <_>
          10 17 6 6 -1.</_>
        <_>
          10 19 6 2 3.</_></rects>
      <tilted>0</tilted></_>
    <_>
      <rects>
        <_>
          13 3 8 11 -1.</_>
        <_>
          17 3 4 11 2.</_></rects>
      <tilted>0</tilted></_>
    <_>
      <rects>
        <_>
          13 3 8 12 -1.</_>
        <_>
          17 3 4 12 2.</_></rects>
      <tilted>0</tilted></_>
    <_>
      <rects>
        <_>
          17 11 3 6 -1.</_>
        <_>
          18 11 1 6 3.</_></rects>
      <tilted>0</tilted></_>
    <_>
      <rects>
        <_>
          18 7 6 14 -1.</_>
        <_>
          21 7 3 14 2.</_></rects>
      <tilted>0</tilted></_>
    <_>
      <rects>
        <_>
          20 6 4 2 -1.</_>
        <_>
          20 7 4 1 2.</_></rects>
      <tilted>0</tilted></_></features></cascade>
</opencv_storage>
