<?xml version="1.0"?>
<opencv_storage>
<stage0>
  <maxWeakCount>5</maxWeakCount>
  <stageThreshold>-2.6369614601135254e+00</stageThreshold>
  <weakClassifiers>
    <_>
      <internalNodes>
        0 -1 146992 5.3251873701810837e-02</internalNodes>
      <leafValues>
        -9.4626867771148682e-01 6.1061948537826538e-01</leafValues></_>
    <_>
      <internalNodes>
        0 -1 6929 -5.7387758046388626e-02</internalNodes>
      <leafValues>
        5.2741944789886475e-01 -8.8729584217071533e-01</leafValues></_>
    <_>
      <internalNodes>
        0 -1 101012 -1.5788733959197998e-01</internalNodes>
      <leafValues>
        6.6114246845245361e-01 -7.2650825977325439e-01</leafValues></_>
    <_>
      <internalNodes>
        0 -1 153499 2.0470816642045975e-02</internalNodes>
      <leafValues>
        -6.8565917015075684e-01 5.9151387214660645e-01</leafValues></_>
    <_>
      <internalNodes>
        0 -1 65840 -1.4572379179298878e-02</internalNodes>
      <leafValues>
        6.0877043008804321e-01 -7.1646660566329956e-01</leafValues></_></weakClassifiers></stage0>
</opencv_storage>
